Language model created by QuickLM on Sat Jul 28 04:48:22 EDT 2018
Copyright (c) 1996-2010 Carnegie Mellon University and Alexander I. Rudnicky

The model is in standard ARPA format, designed by Doug Paul while he was at MITRE.

The code that was used to produce this language model is available in Open Source.
Please visit http://www.speech.cs.cmu.edu/tools/ for more information

The (fixed) discount mass is 0.5. The backoffs are computed using the ratio method.
This model based on a corpus of 188 sentences and 127 words

\data\
ngram 1=127
ngram 2=337
ngram 3=398

\1-grams:
-0.9684 </s> -0.3010
-0.9684 <s> -0.2386
-2.4644 A -0.2928
-2.9415 ACTION -0.3003
-3.2425 ALL -0.2516
-3.2425 AM -0.3008
-2.2425 AND -0.2985
-3.2425 APP -0.2516
-2.9415 APPLICATION -0.2516
-2.9415 AS -0.2516
-2.7654 AUDIO -0.2978
-3.2425 BACKSPACE -0.2516
-2.9415 BOX -0.2516
-2.6405 BRIGHTNESS -0.2499
-2.7654 BROWSER -0.2516
-2.7654 CALCULATOR -0.2516
-2.6405 CAPS -0.2471
-2.6405 CAPSLOCK -0.2471
-2.7654 CHANGE -0.2935
-3.2425 CLICK -0.2995
-2.5436 CLOSE -0.2922
-2.9415 COM -0.2516
-2.7654 COMPUTER -0.2513
-2.7654 CONVERT -0.2973
-3.2425 COPY -0.2516
-3.2425 CREATE -0.3000
-3.2425 CURRENT -0.3003
-3.2425 CUT -0.2516
-2.9415 DATE -0.2516
-2.9415 DAY -0.2516
-2.7654 DECREASE -0.2975
-2.6405 DELETE -0.2480
-2.7654 DICTATION -0.3003
-2.7654 DIRECTORY -0.2516
-2.7654 DOCUMENTS -0.2494
-2.9415 DOT -0.3005
-2.7654 DOWN -0.2516
-2.7654 DOWNLOADS -0.2494
-2.6405 EDITOR -0.2516
-3.2425 ENTER -0.2516
-3.2425 ESCAPE -0.2516
-3.2425 EXIT -0.2975
-2.1286 FILE -0.2502
-2.7654 FIND -0.2950
-2.3395 FOLDER -0.2516
-2.9415 FULLSCREEN -0.2488
-2.7654 GEDIT -0.2516
-3.2425 GENERATED -0.3003
-2.4644 GOOGLE -0.2457
-2.4644 HOME -0.2983
-2.9415 HOMEPAGE -0.2516
-3.2425 I -0.2516
-2.9415 IN -0.2508
-2.7654 INCREASE -0.2975
-3.2425 IS -0.3005
-2.9415 LAST -0.2948
-2.3974 LAUNCH -0.2894
-2.7654 LINE -0.2516
-3.2425 LOGOFF -0.2988
-2.9415 MAIL -0.2511
-2.7654 MANAGER -0.2516
-2.7654 MAP -0.2469
-2.9415 MAXIMIZE -0.2970
-2.7654 MENU -0.2516
-2.9415 MINIMIZE -0.2970
-2.7654 MODE -0.2488
-2.9415 MONTH -0.2516
-2.5436 MOVE -0.2978
-2.0665 MUSIC -0.2502
-2.7654 MUTE -0.2488
-2.9415 MY -0.3005
-2.5436 NAVIGATE -0.2978
-2.6405 NEW -0.2960
-3.2425 NEXT -0.2985
-2.4644 OFF -0.2483
-2.2425 ON -0.2469
-3.2425 ONLINE -0.2516
-1.6091 OPEN -0.2661
-3.2425 OUT -0.2516
-3.2425 PASTE -0.2516
-2.9415 PAUSE -0.2948
-2.9415 PHOTO -0.2516
-2.9415 PICTURE -0.2516
-2.7654 PICTURES -0.2494
-2.5436 PLAY -0.2938
-2.5436 PLAYER -0.2508
-2.4644 PRESS -0.2973
-2.9415 PREVIOUS -0.2948
-2.9415 RANDOM -0.2948
-3.2425 REDO -0.2516
-3.2425 RESET -0.2516
-2.6405 SAVE -0.2955
-2.9415 SCREENSHOT -0.2516
-2.0121 SEARCH -0.2392
-3.2425 SELECT -0.3008
-2.9415 SHUFFLE -0.2948
-3.2425 SHUTDOWN -0.2988
-3.2425 SOME -0.2973
-2.2425 SONG -0.2516
-2.5436 SOUND -0.2499
-2.9415 SPEECH -0.2978
-2.2425 START -0.2851
-2.9415 STOP -0.2948
-2.5436 TAB -0.2516
-2.5436 TAKE -0.2985
-2.5436 TELL -0.2985
-2.0964 TERMINAL -0.2488
-2.2883 TEXT -0.2491
-2.2883 THIS -0.2933
-2.9415 TIME -0.2516
-2.1286 TO -0.2958
-2.6405 TOUCHPAD -0.2471
-3.2425 TRANSLATE -0.2988
-2.5436 TRANSLATOR -0.2516
-2.1634 TURN -0.2950
-3.2425 UNDO -0.2516
-2.7654 UP -0.2516
-2.5436 VOLUME -0.2499
-2.7654 WEATHER -0.2463
-2.5436 WHAT -0.2988
-3.2425 WHO -0.3008
-2.9415 WIKI -0.2469
-2.9415 WIKIPEDIA -0.2469
-2.3974 WINDOW -0.2516
-2.9415 YEAR -0.2516
-2.4644 YOUTUBE -0.2457
-2.7654 ZOOM -0.3000

\2-grams:
-2.5752 <s> ACTION 0.0000
-2.2742 <s> BRIGHTNESS -0.1761
-2.0981 <s> CHANGE 0.0000
-2.5752 <s> CLICK 0.0000
-1.8762 <s> CLOSE 0.0000
-2.0981 <s> CONVERT 0.0000
-2.5752 <s> COPY 0.0000
-2.5752 <s> CREATE 0.0000
-2.5752 <s> CUT 0.0000
-2.0981 <s> DECREASE 0.0000
-2.0981 <s> DELETE -0.0969
-2.5752 <s> DICTATION 0.0000
-2.5752 <s> EXIT 0.0000
-2.0981 <s> FIND 0.0000
-2.5752 <s> FULLSCREEN -0.1761
-2.0981 <s> GOOGLE -0.1249
-2.0981 <s> INCREASE 0.0000
-2.2742 <s> LAST 0.0000
-1.7301 <s> LAUNCH -0.0000
-2.5752 <s> LOGOFF 0.0000
-2.5752 <s> MAP -0.2218
-2.2742 <s> MAXIMIZE 0.0000
-2.2742 <s> MINIMIZE 0.0000
-2.0981 <s> MUTE 0.0000
-2.5752 <s> NEW -0.1761
-0.9417 <s> OPEN 0.0000
-2.5752 <s> PASTE 0.0000
-2.2742 <s> PAUSE 0.0000
-1.8762 <s> PLAY 0.0000
-1.7970 <s> PRESS 0.0000
-2.2742 <s> PREVIOUS 0.0000
-2.5752 <s> RANDOM -0.1761
-2.5752 <s> REDO 0.0000
-1.9731 <s> SAVE 0.0000
-1.6721 <s> SEARCH -0.1845
-2.5752 <s> SELECT 0.0000
-2.2742 <s> SHUFFLE 0.0000
-2.5752 <s> SHUTDOWN 0.0000
-2.2742 <s> SOUND -0.2041
-1.5752 <s> START 0.0000
-2.2742 <s> STOP 0.0000
-1.8762 <s> TAKE 0.0000
-1.8762 <s> TELL 0.0000
-2.5752 <s> TEXT -0.2218
-2.2742 <s> TOUCHPAD -0.1761
-2.5752 <s> TRANSLATE 0.0000
-1.4960 <s> TURN 0.0000
-2.5752 <s> UNDO 0.0000
-2.2742 <s> VOLUME -0.2041
-2.5752 <s> WEATHER -0.2218
-1.8762 <s> WHAT 0.0000
-2.5752 <s> WHO 0.0000
-2.0981 <s> YOUTUBE -0.1249
-2.0981 <s> ZOOM 0.0000
-1.0792 A FILE -0.1413
-0.7782 A PHOTO 0.0000
-1.0792 A PICTURE 0.0000
-1.0792 A SCREENSHOT 0.0000
-1.0792 A TERMINAL -0.2341
-0.3010 ACTION MENU 0.0000
-0.3010 ALL </s> -0.3010
-0.3010 AM I 0.0000
-0.6021 AND MOVE 0.0000
-0.6021 AND NAVIGATE 0.0000
-0.3010 APP </s> -0.3010
-0.3010 APPLICATION </s> -0.3010
-0.3010 AS </s> -0.3010
-0.3010 AUDIO FILE -0.1413
-0.3010 BACKSPACE </s> -0.3010
-0.3010 BOX </s> -0.3010
-0.6021 BRIGHTNESS </s> -0.3010
-0.9031 BRIGHTNESS DOWN 0.0000
-0.9031 BRIGHTNESS UP 0.0000
-0.3010 BROWSER </s> -0.3010
-0.3010 CALCULATOR </s> -0.3010
-0.6021 CAPS </s> -0.3010
-0.9031 CAPS OFF -0.1761
-0.9031 CAPS ON -0.1761
-0.6021 CAPSLOCK </s> -0.3010
-0.9031 CAPSLOCK OFF -0.1761
-0.9031 CAPSLOCK ON -0.1761
-0.7782 CHANGE MUSIC -0.1249
-0.7782 CHANGE SONG 0.0000
-0.7782 CHANGE TAB 0.0000
-0.3010 CLICK A -0.2218
-1.0000 CLOSE TAB 0.0000
-1.0000 CLOSE TERMINAL -0.2341
-0.6990 CLOSE THIS -0.1919
-1.0000 CLOSE WINDOW 0.0000
-0.3010 COM </s> -0.3010
-0.4771 COMPUTER </s> -0.3010
-0.7782 COMPUTER GENERATED 0.0000
-0.4771 CONVERT MY 0.0000
-0.7782 CONVERT TO -0.2663
-0.3010 COPY </s> -0.3010
-0.3010 CREATE NEW -0.1761
-0.3010 CURRENT LINE 0.0000
-0.3010 CUT </s> -0.3010
-0.3010 DATE </s> -0.3010
-0.3010 DAY </s> -0.3010
-0.7782 DECREASE BRIGHTNESS -0.1761
-0.7782 DECREASE SOUND -0.1461
-0.7782 DECREASE VOLUME -0.1461
-0.9031 DELETE </s> -0.3010
-0.9031 DELETE CURRENT 0.0000
-0.9031 DELETE LINE 0.0000
-0.9031 DELETE THIS -0.2762
-0.3010 DICTATION MODE 0.0000
-0.3010 DIRECTORY </s> -0.3010
-0.4771 DOCUMENTS </s> -0.3010
-0.7782 DOCUMENTS FOLDER 0.0000
-0.3010 DOT COM 0.0000
-0.3010 DOWN </s> -0.3010
-0.4771 DOWNLOADS </s> -0.3010
-0.7782 DOWNLOADS FOLDER 0.0000
-0.3010 EDITOR </s> -0.3010
-0.3010 ENTER </s> -0.3010
-0.3010 ESCAPE </s> -0.3010
-0.3010 EXIT TERMINAL -0.2341
-0.5119 FILE </s> -0.3010
-1.1139 FILE AS 0.0000
-0.9379 FILE MANAGER 0.0000
-0.7782 FIND FILE -0.1413
-0.7782 FIND IN -0.1761
-0.7782 FIND TEXT -0.2218
-0.3010 FOLDER </s> -0.3010
-0.6021 FULLSCREEN </s> -0.3010
-0.6021 FULLSCREEN ON -0.1761
-0.3010 GEDIT </s> -0.3010
-0.3010 GENERATED AUDIO 0.0000
-0.7782 GOOGLE </s> -0.3010
-1.0792 GOOGLE DOT 0.0000
-1.0792 GOOGLE HOMEPAGE 0.0000
-0.7782 GOOGLE SEARCH -0.1845
-0.6021 HOME DIRECTORY 0.0000
-0.6021 HOME FOLDER 0.0000
-0.3010 HOMEPAGE </s> -0.3010
-0.3010 I </s> -0.3010
-0.6021 IN </s> -0.3010
-0.6021 IN MAP -0.1249
-0.7782 INCREASE BRIGHTNESS -0.1761
-0.7782 INCREASE SOUND -0.1461
-0.7782 INCREASE VOLUME -0.1461
-0.3010 IS DATE 0.0000
-0.6021 LAST MUSIC -0.1249
-0.6021 LAST SONG 0.0000
-1.1461 LAUNCH BROWSER 0.0000
-1.1461 LAUNCH CALCULATOR 0.0000
-1.1461 LAUNCH FILE -0.2478
-1.1461 LAUNCH GEDIT 0.0000
-1.1461 LAUNCH MUSIC -0.2218
-0.8451 LAUNCH TEXT -0.1249
-0.3010 LINE </s> -0.3010
-0.3010 LOGOFF THIS -0.2499
-0.6021 MAIL </s> -0.3010
-0.6021 MAIL BOX 0.0000
-0.3010 MANAGER </s> -0.3010
-0.4771 MAP </s> -0.3010
-0.7782 MAP SEARCH -0.1845
-0.6021 MAXIMIZE THIS -0.2218
-0.6021 MAXIMIZE WINDOW 0.0000
-0.3010 MENU </s> -0.3010
-0.6021 MINIMIZE THIS -0.2218
-0.6021 MINIMIZE WINDOW 0.0000
-0.4771 MODE </s> -0.3010
-0.7782 MODE ON -0.1761
-0.3010 MONTH </s> -0.3010
-0.3010 MOVE TO -0.0902
-0.4771 MUSIC </s> -0.3010
-0.7782 MUSIC PLAYER 0.0000
-0.7782 MUTE </s> -0.3010
-0.7782 MUTE SOUND -0.1461
-0.7782 MUTE VOLUME -0.1461
-0.3010 MY SPEECH 0.0000
-0.3010 NAVIGATE TO -0.0902
-0.6021 NEW FOLDER 0.0000
-0.9031 NEW TAB 0.0000
-0.9031 NEW WINDOW 0.0000
-0.3010 NEXT SONG 0.0000
-0.6021 OFF </s> -0.3010
-1.0792 OFF CAPS -0.1761
-1.0792 OFF CAPSLOCK -0.1761
-1.0792 OFF TOUCHPAD -0.1761
-0.6021 ON </s> -0.3010
-1.3010 ON CAPS -0.1761
-1.3010 ON CAPSLOCK -0.1761
-1.3010 ON DICTATION 0.0000
-1.3010 ON FULLSCREEN -0.1761
-1.3010 ON TOUCHPAD -0.1761
-0.3010 ONLINE </s> -0.3010
-1.6335 OPEN A -0.2218
-1.9345 OPEN ACTION 0.0000
-1.9345 OPEN BROWSER 0.0000
-1.9345 OPEN CALCULATOR 0.0000
-1.9345 OPEN DOCUMENTS -0.2218
-1.9345 OPEN DOWNLOADS -0.2218
-1.9345 OPEN EDITOR 0.0000
-1.9345 OPEN FILE -0.2478
-1.6335 OPEN GEDIT 0.0000
-1.6335 OPEN GOOGLE -0.1249
-1.6335 OPEN HOME 0.0000
-1.6335 OPEN MAIL 0.0000
-1.9345 OPEN MAP -0.1249
-1.4574 OPEN MUSIC -0.2218
-1.6335 OPEN NEW -0.1761
-1.9345 OPEN PICTURES -0.2218
-1.9345 OPEN SEARCH -0.2881
-0.8931 OPEN TERMINAL 0.0000
-1.6335 OPEN TEXT -0.1249
-1.9345 OPEN TRANSLATOR 0.0000
-1.9345 OPEN WEATHER -0.2218
-1.9345 OPEN WIKI -0.1761
-1.6335 OPEN YOUTUBE -0.1249
-0.3010 OUT </s> -0.3010
-0.3010 PASTE </s> -0.3010
-0.6021 PAUSE MUSIC -0.1249
-0.6021 PAUSE SONG 0.0000
-0.3010 PHOTO </s> -0.3010
-0.3010 PICTURE </s> -0.3010
-0.4771 PICTURES </s> -0.3010
-0.7782 PICTURES FOLDER 0.0000
-1.0000 PLAY MUSIC -0.1249
-1.0000 PLAY NEXT 0.0000
-1.0000 PLAY RANDOM -0.1761
-1.0000 PLAY SOME 0.0000
-1.0000 PLAY SONG 0.0000
-0.5229 PLAYER </s> -0.3010
-1.0000 PLAYER APP 0.0000
-1.0000 PLAYER APPLICATION 0.0000
-1.0792 PRESS BACKSPACE 0.0000
-1.0792 PRESS DELETE -0.2430
-1.0792 PRESS ENTER 0.0000
-1.0792 PRESS ESCAPE 0.0000
-1.0792 PRESS MENU 0.0000
-1.0792 PRESS TAB 0.0000
-0.6021 PREVIOUS MUSIC -0.1249
-0.6021 PREVIOUS SONG 0.0000
-0.6021 RANDOM MUSIC -0.1249
-0.6021 RANDOM SONG 0.0000
-0.3010 REDO </s> -0.3010
-0.3010 RESET </s> -0.3010
-0.6021 SAVE FILE -0.0902
-0.6021 SAVE THIS -0.2499
-0.3010 SCREENSHOT </s> -0.3010
-0.6284 SEARCH </s> -0.3010
-1.5315 SEARCH BOX 0.0000
-1.5315 SEARCH FILE -0.1413
-1.5315 SEARCH GOOGLE -0.2218
-1.5315 SEARCH ONLINE 0.0000
-1.5315 SEARCH TEXT -0.2218
-1.5315 SEARCH WEATHER -0.2218
-1.5315 SEARCH WIKI -0.1761
-1.5315 SEARCH WIKIPEDIA -0.1761
-1.5315 SEARCH YOUTUBE -0.2218
-0.3010 SELECT ALL 0.0000
-0.6021 SHUFFLE MUSIC -0.1249
-0.6021 SHUFFLE SONG 0.0000
-0.3010 SHUTDOWN THIS -0.2499
-0.3010 SOME MUSIC -0.1249
-0.3010 SONG </s> -0.3010
-0.5229 SOUND </s> -0.3010
-1.0000 SOUND DOWN 0.0000
-1.0000 SOUND UP 0.0000
-0.3010 SPEECH TO -0.2478
-1.3010 START BROWSER 0.0000
-1.3010 START CALCULATOR 0.0000
-1.3010 START DICTATION 0.0000
-1.3010 START FILE -0.2478
-1.0000 START MUSIC 0.0000
-1.3010 START SONG 0.0000
-1.3010 START TEXT -0.2218
-1.3010 START TRANSLATOR 0.0000
-1.3010 START WIKIPEDIA -0.1761
-0.6021 STOP MUSIC -0.1249
-0.6021 STOP SONG 0.0000
-0.3010 TAB </s> -0.3010
-0.5229 TAKE A -0.1249
-1.0000 TAKE PICTURE 0.0000
-1.0000 TAKE SCREENSHOT 0.0000
-1.0000 TELL DATE 0.0000
-1.0000 TELL DAY 0.0000
-1.0000 TELL MONTH 0.0000
-1.0000 TELL TIME 0.0000
-1.0000 TELL YEAR 0.0000
-0.8451 TERMINAL </s> -0.3010
-0.4472 TERMINAL AND 0.0000
-0.7782 TEXT </s> -0.3010
-0.7782 TEXT EDITOR 0.0000
-0.7782 TEXT TRANSLATOR 0.0000
-0.9542 THIS COMPUTER -0.1249
-0.9542 THIS FILE -0.0902
-1.2553 THIS LINE 0.0000
-1.2553 THIS TAB 0.0000
-0.7782 THIS WINDOW 0.0000
-0.3010 TIME </s> -0.3010
-1.1139 TO AUDIO 0.0000
-1.4150 TO COMPUTER -0.2218
-1.1139 TO DOCUMENTS -0.1249
-1.1139 TO DOWNLOADS -0.1249
-0.8129 TO HOME 0.0000
-1.1139 TO PICTURES -0.1249
-0.6021 TOUCHPAD </s> -0.3010
-0.9031 TOUCHPAD OFF -0.1761
-0.9031 TOUCHPAD ON -0.1761
-0.3010 TRANSLATE TEXT -0.2218
-0.3010 TRANSLATOR </s> -0.3010
-1.0792 TURN CAPS -0.1761
-1.0792 TURN CAPSLOCK -0.1761
-0.9031 TURN OFF -0.1761
-0.6812 TURN ON -0.1761
-0.3010 UNDO </s> -0.3010
-0.3010 UP </s> -0.3010
-0.5229 VOLUME </s> -0.3010
-1.0000 VOLUME DOWN 0.0000
-1.0000 VOLUME UP 0.0000
-0.7782 WEATHER </s> -0.3010
-0.7782 WEATHER APPLICATION 0.0000
-0.7782 WEATHER SEARCH -0.1845
-1.0000 WHAT DAY 0.0000
-1.0000 WHAT IS 0.0000
-1.0000 WHAT MONTH 0.0000
-1.0000 WHAT TIME 0.0000
-1.0000 WHAT YEAR 0.0000
-0.3010 WHO AM 0.0000
-0.6021 WIKI </s> -0.3010
-0.6021 WIKI SEARCH -0.1845
-0.6021 WIKIPEDIA </s> -0.3010
-0.6021 WIKIPEDIA SEARCH -0.1845
-0.3010 WINDOW </s> -0.3010
-0.3010 YEAR </s> -0.3010
-0.7782 YOUTUBE </s> -0.3010
-1.0792 YOUTUBE DOT 0.0000
-1.0792 YOUTUBE HOMEPAGE 0.0000
-0.7782 YOUTUBE SEARCH -0.1845
-0.7782 ZOOM IN -0.1761
-0.7782 ZOOM OUT 0.0000
-0.7782 ZOOM RESET 0.0000

\3-grams:
-0.3010 <s> ACTION MENU
-0.6021 <s> BRIGHTNESS DOWN
-0.6021 <s> BRIGHTNESS UP
-0.7782 <s> CHANGE MUSIC
-0.7782 <s> CHANGE SONG
-0.7782 <s> CHANGE TAB
-0.3010 <s> CLICK A
-1.0000 <s> CLOSE TAB
-1.0000 <s> CLOSE TERMINAL
-0.6990 <s> CLOSE THIS
-1.0000 <s> CLOSE WINDOW
-0.4771 <s> CONVERT MY
-0.7782 <s> CONVERT TO
-0.3010 <s> COPY </s>
-0.3010 <s> CREATE NEW
-0.3010 <s> CUT </s>
-0.7782 <s> DECREASE BRIGHTNESS
-0.7782 <s> DECREASE SOUND
-0.7782 <s> DECREASE VOLUME
-0.7782 <s> DELETE CURRENT
-0.7782 <s> DELETE LINE
-0.7782 <s> DELETE THIS
-0.3010 <s> DICTATION MODE
-0.3010 <s> EXIT TERMINAL
-0.7782 <s> FIND FILE
-0.7782 <s> FIND IN
-0.7782 <s> FIND TEXT
-0.3010 <s> FULLSCREEN ON
-0.7782 <s> GOOGLE DOT
-0.7782 <s> GOOGLE HOMEPAGE
-0.7782 <s> GOOGLE SEARCH
-0.7782 <s> INCREASE BRIGHTNESS
-0.7782 <s> INCREASE SOUND
-0.7782 <s> INCREASE VOLUME
-0.6021 <s> LAST MUSIC
-0.6021 <s> LAST SONG
-1.1461 <s> LAUNCH BROWSER
-1.1461 <s> LAUNCH CALCULATOR
-1.1461 <s> LAUNCH FILE
-1.1461 <s> LAUNCH GEDIT
-1.1461 <s> LAUNCH MUSIC
-0.8451 <s> LAUNCH TEXT
-0.3010 <s> LOGOFF THIS
-0.3010 <s> MAP SEARCH
-0.6021 <s> MAXIMIZE THIS
-0.6021 <s> MAXIMIZE WINDOW
-0.6021 <s> MINIMIZE THIS
-0.6021 <s> MINIMIZE WINDOW
-0.7782 <s> MUTE </s>
-0.7782 <s> MUTE SOUND
-0.7782 <s> MUTE VOLUME
-0.3010 <s> NEW FOLDER
-1.6335 <s> OPEN A
-1.9345 <s> OPEN ACTION
-1.9345 <s> OPEN BROWSER
-1.9345 <s> OPEN CALCULATOR
-1.9345 <s> OPEN DOCUMENTS
-1.9345 <s> OPEN DOWNLOADS
-1.9345 <s> OPEN EDITOR
-1.9345 <s> OPEN FILE
-1.6335 <s> OPEN GEDIT
-1.6335 <s> OPEN GOOGLE
-1.6335 <s> OPEN HOME
-1.6335 <s> OPEN MAIL
-1.9345 <s> OPEN MAP
-1.4574 <s> OPEN MUSIC
-1.6335 <s> OPEN NEW
-1.9345 <s> OPEN PICTURES
-1.9345 <s> OPEN SEARCH
-0.8931 <s> OPEN TERMINAL
-1.6335 <s> OPEN TEXT
-1.9345 <s> OPEN TRANSLATOR
-1.9345 <s> OPEN WEATHER
-1.9345 <s> OPEN WIKI
-1.6335 <s> OPEN YOUTUBE
-0.3010 <s> PASTE </s>
-0.6021 <s> PAUSE MUSIC
-0.6021 <s> PAUSE SONG
-1.0000 <s> PLAY MUSIC
-1.0000 <s> PLAY NEXT
-1.0000 <s> PLAY RANDOM
-1.0000 <s> PLAY SOME
-1.0000 <s> PLAY SONG
-1.0792 <s> PRESS BACKSPACE
-1.0792 <s> PRESS DELETE
-1.0792 <s> PRESS ENTER
-1.0792 <s> PRESS ESCAPE
-1.0792 <s> PRESS MENU
-1.0792 <s> PRESS TAB
-0.6021 <s> PREVIOUS MUSIC
-0.6021 <s> PREVIOUS SONG
-0.3010 <s> RANDOM MUSIC
-0.3010 <s> REDO </s>
-0.6021 <s> SAVE FILE
-0.6021 <s> SAVE THIS
-1.2041 <s> SEARCH FILE
-1.2041 <s> SEARCH GOOGLE
-1.2041 <s> SEARCH ONLINE
-1.2041 <s> SEARCH TEXT
-1.2041 <s> SEARCH WEATHER
-1.2041 <s> SEARCH WIKI
-1.2041 <s> SEARCH WIKIPEDIA
-1.2041 <s> SEARCH YOUTUBE
-0.3010 <s> SELECT ALL
-0.6021 <s> SHUFFLE MUSIC
-0.6021 <s> SHUFFLE SONG
-0.3010 <s> SHUTDOWN THIS
-0.6021 <s> SOUND DOWN
-0.6021 <s> SOUND UP
-1.3010 <s> START BROWSER
-1.3010 <s> START CALCULATOR
-1.3010 <s> START DICTATION
-1.3010 <s> START FILE
-1.0000 <s> START MUSIC
-1.3010 <s> START SONG
-1.3010 <s> START TEXT
-1.3010 <s> START TRANSLATOR
-1.3010 <s> START WIKIPEDIA
-0.6021 <s> STOP MUSIC
-0.6021 <s> STOP SONG
-0.5229 <s> TAKE A
-1.0000 <s> TAKE PICTURE
-1.0000 <s> TAKE SCREENSHOT
-1.0000 <s> TELL DATE
-1.0000 <s> TELL DAY
-1.0000 <s> TELL MONTH
-1.0000 <s> TELL TIME
-1.0000 <s> TELL YEAR
-0.3010 <s> TEXT TRANSLATOR
-0.6021 <s> TOUCHPAD OFF
-0.6021 <s> TOUCHPAD ON
-0.3010 <s> TRANSLATE TEXT
-1.0792 <s> TURN CAPS
-1.0792 <s> TURN CAPSLOCK
-0.9031 <s> TURN OFF
-0.6812 <s> TURN ON
-0.3010 <s> UNDO </s>
-0.6021 <s> VOLUME DOWN
-0.6021 <s> VOLUME UP
-0.3010 <s> WEATHER SEARCH
-1.0000 <s> WHAT DAY
-1.0000 <s> WHAT IS
-1.0000 <s> WHAT MONTH
-1.0000 <s> WHAT TIME
-1.0000 <s> WHAT YEAR
-0.3010 <s> WHO AM
-0.7782 <s> YOUTUBE DOT
-0.7782 <s> YOUTUBE HOMEPAGE
-0.7782 <s> YOUTUBE SEARCH
-0.7782 <s> ZOOM IN
-0.7782 <s> ZOOM OUT
-0.7782 <s> ZOOM RESET
-0.3010 A FILE </s>
-0.3010 A PHOTO </s>
-0.3010 A PICTURE </s>
-0.3010 A SCREENSHOT </s>
-0.3010 A TERMINAL </s>
-0.3010 ACTION MENU </s>
-0.3010 AM I </s>
-0.3010 AND MOVE TO
-0.3010 AND NAVIGATE TO
-0.3010 AUDIO FILE </s>
-0.3010 BRIGHTNESS DOWN </s>
-0.3010 BRIGHTNESS UP </s>
-0.3010 CAPS OFF </s>
-0.3010 CAPS ON </s>
-0.3010 CAPSLOCK OFF </s>
-0.3010 CAPSLOCK ON </s>
-0.3010 CHANGE MUSIC </s>
-0.3010 CHANGE SONG </s>
-0.3010 CHANGE TAB </s>
-0.3010 CLICK A PHOTO
-0.3010 CLOSE TAB </s>
-0.3010 CLOSE TERMINAL </s>
-0.6021 CLOSE THIS TAB
-0.6021 CLOSE THIS WINDOW
-0.3010 CLOSE WINDOW </s>
-0.3010 COMPUTER GENERATED AUDIO
-0.3010 CONVERT MY SPEECH
-0.3010 CONVERT TO AUDIO
-0.3010 CREATE NEW FOLDER
-0.3010 CURRENT LINE </s>
-0.3010 DECREASE BRIGHTNESS </s>
-0.3010 DECREASE SOUND </s>
-0.3010 DECREASE VOLUME </s>
-0.3010 DELETE CURRENT LINE
-0.3010 DELETE LINE </s>
-0.3010 DELETE THIS LINE
-0.4771 DICTATION MODE </s>
-0.7782 DICTATION MODE ON
-0.3010 DOCUMENTS FOLDER </s>
-0.3010 DOT COM </s>
-0.3010 DOWNLOADS FOLDER </s>
-0.3010 EXIT TERMINAL </s>
-0.3010 FILE AS </s>
-0.3010 FILE MANAGER </s>
-0.3010 FIND FILE </s>
-0.3010 FIND IN MAP
-0.3010 FIND TEXT </s>
-0.3010 FULLSCREEN ON </s>
-0.3010 GENERATED AUDIO FILE
-0.3010 GOOGLE DOT COM
-0.3010 GOOGLE HOMEPAGE </s>
-0.3010 GOOGLE SEARCH </s>
-0.3010 HOME DIRECTORY </s>
-0.3010 HOME FOLDER </s>
-0.3010 IN MAP </s>
-0.3010 INCREASE BRIGHTNESS </s>
-0.3010 INCREASE SOUND </s>
-0.3010 INCREASE VOLUME </s>
-0.3010 IS DATE </s>
-0.3010 LAST MUSIC </s>
-0.3010 LAST SONG </s>
-0.3010 LAUNCH BROWSER </s>
-0.3010 LAUNCH CALCULATOR </s>
-0.3010 LAUNCH FILE MANAGER
-0.3010 LAUNCH GEDIT </s>
-0.3010 LAUNCH MUSIC PLAYER
-0.6021 LAUNCH TEXT EDITOR
-0.6021 LAUNCH TEXT TRANSLATOR
-0.3010 LOGOFF THIS COMPUTER
-0.3010 MAIL BOX </s>
-0.3010 MAP SEARCH </s>
-0.3010 MAXIMIZE THIS WINDOW
-0.3010 MAXIMIZE WINDOW </s>
-0.3010 MINIMIZE THIS WINDOW
-0.3010 MINIMIZE WINDOW </s>
-0.3010 MODE ON </s>
-1.0000 MOVE TO DOCUMENTS
-1.0000 MOVE TO DOWNLOADS
-0.6990 MOVE TO HOME
-1.0000 MOVE TO PICTURES
-0.5229 MUSIC PLAYER </s>
-1.0000 MUSIC PLAYER APP
-1.0000 MUSIC PLAYER APPLICATION
-0.3010 MUTE SOUND </s>
-0.3010 MUTE VOLUME </s>
-0.3010 MY SPEECH TO
-1.0000 NAVIGATE TO DOCUMENTS
-1.0000 NAVIGATE TO DOWNLOADS
-0.6990 NAVIGATE TO HOME
-1.0000 NAVIGATE TO PICTURES
-0.3010 NEW FOLDER </s>
-0.3010 NEW TAB </s>
-0.3010 NEW WINDOW </s>
-0.3010 NEXT SONG </s>
-0.3010 OFF CAPS </s>
-0.3010 OFF CAPSLOCK </s>
-0.3010 OFF TOUCHPAD </s>
-0.3010 ON CAPS </s>
-0.3010 ON CAPSLOCK </s>
-0.3010 ON DICTATION MODE
-0.3010 ON FULLSCREEN </s>
-0.3010 ON TOUCHPAD </s>
-0.6021 OPEN A FILE
-0.6021 OPEN A TERMINAL
-0.3010 OPEN ACTION MENU
-0.3010 OPEN BROWSER </s>
-0.3010 OPEN CALCULATOR </s>
-0.3010 OPEN DOCUMENTS FOLDER
-0.3010 OPEN DOWNLOADS FOLDER
-0.3010 OPEN EDITOR </s>
-0.3010 OPEN FILE MANAGER
-0.3010 OPEN GEDIT </s>
-0.6021 OPEN GOOGLE </s>
-0.6021 OPEN GOOGLE SEARCH
-0.6021 OPEN HOME DIRECTORY
-0.6021 OPEN HOME FOLDER
-0.6021 OPEN MAIL </s>
-0.6021 OPEN MAIL BOX
-0.3010 OPEN MAP </s>
-0.3010 OPEN MUSIC PLAYER
-0.6021 OPEN NEW TAB
-0.6021 OPEN NEW WINDOW
-0.3010 OPEN PICTURES FOLDER
-0.3010 OPEN SEARCH BOX
-1.3424 OPEN TERMINAL </s>
-0.3424 OPEN TERMINAL AND
-0.6021 OPEN TEXT EDITOR
-0.6021 OPEN TEXT TRANSLATOR
-0.3010 OPEN TRANSLATOR </s>
-0.3010 OPEN WEATHER APPLICATION
-0.3010 OPEN WIKI SEARCH
-0.6021 OPEN YOUTUBE </s>
-0.6021 OPEN YOUTUBE SEARCH
-0.3010 PAUSE MUSIC </s>
-0.3010 PAUSE SONG </s>
-0.3010 PICTURES FOLDER </s>
-0.3010 PLAY MUSIC </s>
-0.3010 PLAY NEXT SONG
-0.3010 PLAY RANDOM SONG
-0.3010 PLAY SOME MUSIC
-0.3010 PLAY SONG </s>
-0.3010 PLAYER APP </s>
-0.3010 PLAYER APPLICATION </s>
-0.3010 PRESS BACKSPACE </s>
-0.3010 PRESS DELETE </s>
-0.3010 PRESS ENTER </s>
-0.3010 PRESS ESCAPE </s>
-0.3010 PRESS MENU </s>
-0.3010 PRESS TAB </s>
-0.3010 PREVIOUS MUSIC </s>
-0.3010 PREVIOUS SONG </s>
-0.3010 RANDOM MUSIC </s>
-0.3010 RANDOM SONG </s>
-0.6021 SAVE FILE </s>
-0.6021 SAVE FILE AS
-0.3010 SAVE THIS FILE
-0.3010 SEARCH BOX </s>
-0.3010 SEARCH FILE </s>
-0.3010 SEARCH GOOGLE </s>
-0.3010 SEARCH ONLINE </s>
-0.3010 SEARCH TEXT </s>
-0.3010 SEARCH WEATHER </s>
-0.3010 SEARCH WIKI </s>
-0.3010 SEARCH WIKIPEDIA </s>
-0.3010 SEARCH YOUTUBE </s>
-0.3010 SELECT ALL </s>
-0.3010 SHUFFLE MUSIC </s>
-0.3010 SHUFFLE SONG </s>
-0.3010 SHUTDOWN THIS COMPUTER
-0.3010 SOME MUSIC </s>
-0.3010 SOUND DOWN </s>
-0.3010 SOUND UP </s>
-0.6021 SPEECH TO AUDIO
-0.6021 SPEECH TO COMPUTER
-0.3010 START BROWSER </s>
-0.3010 START CALCULATOR </s>
-0.3010 START DICTATION MODE
-0.3010 START FILE MANAGER
-0.6021 START MUSIC </s>
-0.6021 START MUSIC PLAYER
-0.3010 START SONG </s>
-0.3010 START TEXT EDITOR
-0.3010 START TRANSLATOR </s>
-0.3010 START WIKIPEDIA SEARCH
-0.3010 STOP MUSIC </s>
-0.3010 STOP SONG </s>
-0.7782 TAKE A PHOTO
-0.7782 TAKE A PICTURE
-0.7782 TAKE A SCREENSHOT
-0.3010 TAKE PICTURE </s>
-0.3010 TAKE SCREENSHOT </s>
-0.3010 TELL DATE </s>
-0.3010 TELL DAY </s>
-0.3010 TELL MONTH </s>
-0.3010 TELL TIME </s>
-0.3010 TELL YEAR </s>
-0.6021 TERMINAL AND MOVE
-0.6021 TERMINAL AND NAVIGATE
-0.3010 TEXT EDITOR </s>
-0.3010 TEXT TRANSLATOR </s>
-0.3010 THIS COMPUTER </s>
-0.6021 THIS FILE </s>
-0.6021 THIS FILE AS
-0.3010 THIS LINE </s>
-0.3010 THIS TAB </s>
-0.3010 THIS WINDOW </s>
-0.3010 TO AUDIO FILE
-0.3010 TO COMPUTER GENERATED
-0.3010 TO DOCUMENTS </s>
-0.3010 TO DOWNLOADS </s>
-0.6021 TO HOME DIRECTORY
-0.6021 TO HOME FOLDER
-0.3010 TO PICTURES </s>
-0.3010 TOUCHPAD OFF </s>
-0.3010 TOUCHPAD ON </s>
-0.3010 TRANSLATE TEXT </s>
-0.6021 TURN CAPS OFF
-0.6021 TURN CAPS ON
-0.6021 TURN CAPSLOCK OFF
-0.6021 TURN CAPSLOCK ON
-0.7782 TURN OFF CAPS
-0.7782 TURN OFF CAPSLOCK
-0.7782 TURN OFF TOUCHPAD
-1.0000 TURN ON CAPS
-1.0000 TURN ON CAPSLOCK
-1.0000 TURN ON DICTATION
-1.0000 TURN ON FULLSCREEN
-1.0000 TURN ON TOUCHPAD
-0.3010 VOLUME DOWN </s>
-0.3010 VOLUME UP </s>
-0.3010 WEATHER APPLICATION </s>
-0.3010 WEATHER SEARCH </s>
-0.3010 WHAT DAY </s>
-0.3010 WHAT IS DATE
-0.3010 WHAT MONTH </s>
-0.3010 WHAT TIME </s>
-0.3010 WHAT YEAR </s>
-0.3010 WHO AM I
-0.3010 WIKI SEARCH </s>
-0.3010 WIKIPEDIA SEARCH </s>
-0.3010 YOUTUBE DOT COM
-0.3010 YOUTUBE HOMEPAGE </s>
-0.3010 YOUTUBE SEARCH </s>
-0.3010 ZOOM IN </s>
-0.3010 ZOOM OUT </s>
-0.3010 ZOOM RESET </s>

\end\
